/*!
 * The following copyright notice may not be removed under any circumstances.
 * 
 * Copyright:
 * Copyright (c) 2012, Sorkin Type Co (www.sorkintype.com)with Reserved Font Name
 * "Fjalla" and Fjalla "One"
 * 
 * Trademark:
 * Fjalla is a trademark of Sorkin Type Co.
 * 
 * Description:
 * Fjalla is a medium contrast display sans serif. Fjalla has been carefully
 * adjusted to the restrictions of the screen. Despite having display
 * characteristics Fjalla can be used in a wide range of sizes.
 * 
 * Manufacturer:
 * Irina Smirnova
 * 
 * Designer:
 * Irina Smirnova
 * 
 * Vendor URL:
 * www.sorkintype.com
 * 
 * License information:
 * http://scripts.sil.org/OFL
 */
Cufon.registerFont({"w":0,"face":{"font-family":"Narrow","font-weight":400,"font-stretch":"normal","units-per-em":"2048","panose-1":"2 0 5 6 4 0 0 2 0 4","ascent":"1638","descent":"-410","bbox":"-146 -2066.01 2519.8 457.886","underline-thickness":"102","underline-position":"-103","unicode-range":"U+0009-U+FB02"},"glyphs":{" ":{"w":438},"\ufb00":{"d":"537,-1625v-122,-1,-130,119,-124,248r191,0r0,192r-191,0r0,1185r-249,0r0,-1185r-119,0r0,-192r119,0v-13,-269,43,-457,299,-449v63,2,124,13,168,34r0,178v-28,-7,-59,-11,-94,-11xm1160,-1635v-126,-1,-129,126,-124,258r191,0r0,180r-191,0r0,1197r-249,0r0,-1197r-119,0r0,-180r119,0r0,-99v-2,-230,76,-363,299,-360v63,1,124,13,168,34r0,178v-28,-7,-59,-11,-94,-11","w":1239},"\ufb01":{"d":"527,-1635v-120,1,-117,131,-114,258r191,0r0,192r-191,0r0,1185r-249,0r0,-1185r-119,0r0,-192r119,0v-11,-266,33,-468,289,-459v60,2,117,13,158,34r0,178v-25,-7,-53,-11,-84,-11xm1042,-1739v0,102,-53,166,-154,165v-97,0,-151,-62,-151,-165v0,-107,47,-160,152,-160v104,1,153,52,153,160xm757,-1377r253,0r0,1377r-253,0r0,-1377","w":1144},"\ufb02":{"d":"527,-1635v-120,1,-117,131,-114,258r191,0r0,192r-191,0r0,1185r-249,0r0,-1185r-119,0r0,-192r119,0v-11,-266,33,-468,289,-459v60,2,117,13,158,34r0,178v-25,-7,-53,-11,-84,-11xm760,-1819r253,0r0,1819r-253,0r0,-1819","w":1147},"\r":{},"A":{"d":"334,-1708r298,0r316,1708r-262,0r-47,-306r-312,0r-45,306r-263,0xm609,-501r-120,-851r-11,0r-121,851r252,0","w":967},"D":{"d":"146,-1708r269,0v222,-5,387,43,470,186v61,104,95,241,91,420v-8,387,58,848,-188,1022v-144,102,-402,75,-642,80r0,-1708xm405,-181v118,3,213,-4,253,-81v41,-79,47,-187,47,-323r0,-530v-2,-228,-5,-411,-234,-404r-66,0r0,1338","w":1061},"H":{"d":"146,-1708r259,0r0,715r307,0r0,-715r259,0r0,1708r-259,0r0,-789r-307,0r0,789r-259,0r0,-1708","w":1119},"E":{"d":"146,-1708r633,0r0,204r-374,0r0,511r289,0r0,204r-289,0r0,585r384,0r0,204r-643,0r0,-1708","w":830},"S":{"d":"477,16v-255,1,-397,-120,-397,-362v0,-80,10,-133,26,-202r201,0v0,180,-6,360,168,368v193,9,172,-257,91,-368v-100,-137,-224,-269,-329,-403v-84,-107,-150,-216,-150,-385v0,-246,145,-382,393,-387v285,-6,425,178,382,463r-19,103r-200,0v3,-181,-4,-353,-166,-362v-168,-9,-171,212,-98,315v146,204,352,386,461,618v51,110,61,257,16,372v-56,143,-183,229,-379,230","w":956},"I":{"d":"146,-1708r259,0r0,1708r-259,0r0,-1708","w":551},"O":{"d":"524,-1723v323,0,421,229,421,562r0,605v-2,305,-89,524,-338,564v-370,59,-508,-200,-508,-564r0,-605v2,-334,102,-562,425,-562xm370,-455v3,149,12,275,154,275v140,0,151,-128,151,-275r0,-777v-4,-150,-9,-287,-151,-287v-144,0,-154,135,-154,287r0,777","w":1044},"N":{"d":"146,-1708r210,0r414,1143r6,0r-17,-201v-3,-42,-5,-88,-7,-141v-2,-53,-3,-112,-3,-178r0,-623r232,0r0,1708r-212,0r-412,-1113r-8,0r17,221v3,47,5,103,7,166v2,63,3,137,3,224r0,502r-230,0r0,-1708","w":1127},"o":{"d":"478,-1393v393,-4,381,402,378,802v-2,267,-48,473,-210,568v-90,53,-253,50,-346,2v-212,-110,-210,-450,-206,-786v4,-329,62,-583,384,-586xm418,-198v29,25,90,26,118,0v67,-60,66,-187,66,-325r0,-339v-3,-140,1,-265,-66,-328v-28,-26,-89,-25,-118,0v-70,60,-70,188,-70,328r0,339v2,141,-1,265,70,325","w":950},"d":{"d":"639,-128v-53,90,-149,169,-299,140v-315,-61,-242,-555,-242,-930v0,-222,44,-385,188,-454v34,-16,74,-20,114,-20v103,0,169,54,213,115v1,-55,-7,-118,-7,-175r0,-367r252,0r0,1819r-197,0xm352,-431v4,131,8,251,128,251v71,0,103,-48,126,-99r0,-828v-23,-49,-60,-101,-127,-101v-119,0,-127,119,-127,249r0,528","w":988},"s":{"d":"409,15v-207,0,-332,-92,-333,-303v0,-53,14,-117,25,-154r178,0v2,143,7,262,147,262v105,0,134,-112,86,-188v-131,-205,-338,-342,-418,-597v-11,-36,-15,-74,-15,-114v5,-207,134,-314,338,-314v199,0,324,88,327,286v1,59,-14,125,-25,170r-175,0v-6,-131,3,-264,-123,-271v-114,-6,-141,125,-92,208v120,204,329,336,413,578v12,37,18,75,18,115v-5,214,-134,322,-351,322","w":829},"e":{"d":"826,-413v14,283,-100,431,-364,428v-390,-4,-372,-431,-368,-839v4,-325,82,-569,397,-569v248,0,347,168,347,430v0,115,-12,227,-33,322r-457,0r0,140v6,161,-7,321,147,321v108,0,123,-111,120,-233r211,0xm602,-811v3,-166,29,-397,-123,-397v-158,0,-123,221,-131,397r254,0","w":922},".":{"d":"246,14v-104,0,-155,-78,-155,-193v0,-126,46,-198,156,-198v110,0,157,77,157,198v0,114,-51,193,-158,193","w":501},"h":{"d":"527,-1208v-65,0,-113,48,-144,96r0,1112r-253,0r0,-1819r253,0r0,324r-13,236v58,-79,138,-134,268,-134v181,0,252,136,252,338r0,1055r-253,0r0,-1046v0,-105,-22,-162,-110,-162","w":1022},"!":{"d":"208,-1813r273,0r-31,1258r-207,0xm346,14v-103,0,-155,-77,-155,-191v0,-126,46,-196,156,-196v110,0,157,74,157,196v0,113,-52,191,-158,191","w":690},"q":{"d":"613,-89v-52,67,-147,124,-273,99v-310,-62,-242,-538,-242,-908v0,-222,38,-392,174,-470v33,-18,71,-24,112,-24v132,0,201,76,253,158r24,-143r197,0r0,1823r-252,0r0,-367xm352,-431v4,131,8,251,128,251v71,0,103,-48,126,-99r0,-828v-23,-49,-60,-101,-127,-101v-119,0,-127,120,-127,251r0,526","w":988},"b":{"d":"649,12v-152,24,-247,-51,-300,-140r-21,128r-198,0r0,-1819r253,0r0,367r-7,183v54,-76,145,-146,280,-119v304,62,235,540,235,907v0,224,-38,396,-178,472v-21,12,-43,18,-64,21xm561,-1198v-80,-39,-154,23,-178,83r0,836v23,51,55,99,126,99v119,0,127,-120,127,-251r0,-527v-2,-112,-7,-206,-75,-240","w":989},"p":{"d":"650,10v-129,22,-223,-32,-275,-101v11,170,8,355,8,536r-253,0r0,-1822r198,0r23,145v56,-93,149,-187,305,-156v304,60,236,540,236,907v0,224,-39,395,-178,471v-21,12,-43,17,-64,20xm562,-1198v-81,-40,-155,25,-179,85r0,832v23,52,54,101,127,101v119,0,127,-120,127,-251r0,-527v-2,-112,-7,-206,-75,-240","w":990},"k":{"d":"134,-1819r253,0r0,1047r8,0r276,-605r243,0r-306,630r335,747r-258,0r-290,-683r-8,0r0,683r-253,0r0,-1819","w":942},"m":{"d":"515,-1208v-60,2,-103,48,-132,94r0,1114r-253,0r0,-1377r196,0r22,148v61,-94,141,-164,286,-164v119,0,187,61,222,156v61,-90,139,-156,281,-156v180,0,251,137,251,338r0,1055r-253,0r0,-1046v0,-97,-22,-165,-117,-162v-62,2,-103,49,-134,96r1,1112r-253,0r0,-1046v0,-97,-22,-165,-117,-162","w":1520},"u":{"d":"384,16v-181,0,-252,-135,-252,-338r0,-1055r253,0r0,1035v0,105,22,162,110,162v63,0,107,-38,139,-81r0,-1116r253,0r0,1377r-193,0r-26,-147v-60,94,-140,163,-284,163","w":1021},"w":{"d":"35,-1377r241,0r99,746r24,279r8,0r30,-279r132,-746r213,0r136,746r37,279r8,0r17,-279r87,-746r236,0r-223,1377r-233,0r-143,-766r-32,-211r-8,0r-29,211r-130,766r-243,0","w":1338},"v":{"d":"16,-1377r252,0r133,732r33,293r8,0r38,-293r132,-732r244,0r-314,1377r-216,0","w":874},"z":{"d":"22,-126r386,-1059r-353,0r0,-192r624,0r0,126r-387,1059r389,0r0,192r-659,0r0,-126","w":703},"x":{"d":"311,-699r-272,-678r259,0r147,451r2,0r156,-451r242,0r-261,654r293,723r-259,0r-170,-475r-8,0r-172,475r-243,0","w":902},"c":{"d":"796,-413v12,278,-85,429,-345,428v-116,0,-204,-48,-265,-143v-61,-95,-92,-241,-92,-436v0,-405,-19,-829,387,-829v199,0,314,101,316,303v0,61,-6,102,-17,149r-202,0v0,-125,0,-267,-105,-267v-130,0,-123,161,-123,306r0,391v2,134,-1,255,67,313v16,13,37,18,62,18v97,0,99,-121,99,-233r218,0","w":871},"f":{"d":"537,-1635v-126,-1,-129,126,-124,258r191,0r0,180r-191,0r0,1197r-249,0r0,-1197r-119,0r0,-180r119,0r0,-99v-2,-230,76,-363,299,-360v63,1,124,13,168,34r0,178v-28,-7,-59,-11,-94,-11","w":616},"y":{"d":"78,265v180,22,258,-85,266,-257r-326,-1385r257,0r145,762r42,263r8,0r29,-263r117,-762r249,0r-290,1428v-44,216,-114,391,-365,394v-43,0,-88,-8,-133,-25","w":898},"t":{"d":"431,16v-207,0,-272,-140,-272,-359r0,-854r-107,0r0,-180r129,0r51,-357r180,0r0,357r220,0r0,180r-220,0r0,876v-1,88,25,142,109,141v52,0,86,-14,120,-34r0,140v-46,56,-112,90,-210,90","w":675},"j":{"d":"419,-1739v0,102,-53,166,-154,165v-97,0,-151,-62,-151,-165v0,-107,47,-160,152,-160v104,1,153,52,153,160xm-7,273v105,15,141,-55,141,-157r0,-1493r253,0r0,1461v0,220,-65,358,-272,360v-47,0,-87,-7,-122,-24r0,-147","w":521},"T":{"d":"304,-1504r-275,0r0,-204r808,0r0,204r-274,0r0,1504r-259,0r0,-1504","w":866},"V":{"d":"19,-1708r265,0r188,1353r11,0r189,-1353r264,0r-311,1708r-296,0","w":955},"Z":{"d":"39,-137r506,-1367r-430,0r0,-204r721,0r0,137r-507,1367r477,0r0,204r-767,0r0,-137","w":865},"X":{"d":"345,-860r-312,-848r277,0r159,546r10,0r159,-546r268,0r-313,849r313,859r-267,0r-162,-549r-17,0r-169,549r-258,0","w":939},"L":{"d":"146,-1708r259,0r0,1504r353,0r0,204r-612,0r0,-1708","w":776},"J":{"d":"710,-414v2,271,-101,430,-359,430v-238,0,-339,-145,-339,-378v0,-85,12,-180,28,-257r207,0r-3,208v4,115,-2,231,104,231v94,0,100,-96,100,-198r3,-1330r259,0r0,1294","w":850},"W":{"d":"37,-1708r248,0r115,1032r13,241r25,0r24,-271r184,-1002r207,0r176,1002r20,271r26,0r12,-241r105,-1032r249,0r-239,1708r-263,0r-141,-821r-44,-357r-20,0r-43,357r-148,821r-260,0","w":1479},"Y":{"d":"349,-569r-344,-1139r261,0r209,817r12,0r207,-817r260,0r-346,1139r0,569r-259,0r0,-569","w":959},"Q":{"d":"697,346v-200,1,-284,-122,-268,-341v-235,-51,-320,-261,-320,-561r0,-605v2,-334,102,-562,425,-562v323,0,421,229,421,562r0,605v0,295,-88,495,-308,557v-13,150,85,179,233,167r0,140v-59,26,-107,37,-183,38xm380,-455v3,149,12,275,154,275v140,0,151,-128,151,-275r0,-777v-4,-150,-9,-287,-151,-287v-144,0,-154,135,-154,287r0,777","w":1064},"M":{"d":"146,-1708r338,0r164,661v33,136,48,258,70,397r8,0r29,-188v51,-301,142,-583,210,-870r331,0r0,1708r-242,0r2,-815v2,-80,3,-154,7,-221r18,-299r-19,0r-258,1115r-164,0r-260,-1115r-19,0r18,299v3,67,7,141,7,221r2,815r-242,0r0,-1708","w":1442},"K":{"d":"146,-1708r259,0r0,746r8,0r296,-746r258,0r-330,801r367,907r-277,0r-314,-813r-8,0r0,813r-259,0r0,-1708","w":1005},"F":{"d":"146,-1708r653,0r0,204r-394,0r0,511r309,0r0,204r-309,0r0,789r-259,0r0,-1708","w":826},"P":{"d":"932,-1179v0,413,-121,673,-527,659r0,520r-259,0r0,-1708r259,0v354,-8,527,168,527,529xm666,-1225v0,-196,-61,-303,-261,-294r0,809v276,17,261,-244,261,-515","w":982},"R":{"d":"945,-1220v0,263,-56,455,-221,537r274,683r-274,0r-227,-639r-97,0r0,639r-254,0r0,-1708r281,0v338,-7,518,146,518,488xm685,-1265v5,-190,-87,-267,-285,-254r0,693v154,7,246,-34,272,-160v15,-72,11,-186,13,-279","w":1048},"U":{"d":"545,15v-310,0,-405,-220,-405,-540r0,-1183r261,0r0,1252v3,146,5,276,144,276v140,0,151,-129,151,-276r0,-1252r258,0r0,1183v-2,321,-97,540,-409,540","w":1094},"B":{"d":"968,-437v0,334,-217,441,-550,437r-272,0r0,-1708r262,0v307,-4,532,79,532,387v0,224,-68,371,-228,419r0,8v196,33,256,210,256,457xm682,-1200v0,-198,-41,-325,-232,-319r-50,0r0,542v177,10,282,-52,282,-223xm705,-545v2,-163,-67,-251,-231,-249r-74,0r0,614v191,13,307,-51,305,-232r0,-133","w":1047},"l":{"d":"134,-1819r253,0r0,1819r-253,0r0,-1819","w":521},"g":{"d":"144,174v1,-27,5,-55,13,-80r179,0v0,110,34,161,135,163v185,3,136,-242,143,-422v-54,85,-211,144,-338,82v-220,-108,-178,-504,-178,-835v0,-262,51,-468,302,-474v128,-3,195,67,238,150r23,-136r197,0r0,1322v-2,292,-96,499,-384,501v-199,2,-331,-69,-330,-271xm352,-506v4,132,8,252,128,252v71,0,103,-50,126,-100r0,-753v-23,-49,-60,-101,-127,-101v-119,0,-127,119,-127,249r0,453","w":993},"\u0131":{"d":"134,-1377r253,0r0,1377r-253,0r0,-1377","w":521},"[":{"d":"139,-1963r505,0r0,192r-283,0r0,1837r283,0r0,190r-505,0r0,-2219","w":776},"\u0237":{"d":"-7,273v105,15,141,-55,141,-157r0,-1493r253,0r0,1461v0,220,-65,358,-272,360v-47,0,-87,-7,-122,-24r0,-147","w":521},"r":{"d":"481,-1208v-49,0,-79,35,-98,74r0,1134r-253,0r0,-1377r185,0r22,140v45,-84,106,-156,208,-156v157,0,213,102,213,268v0,67,-17,134,-34,187r-176,0v-7,-105,28,-270,-67,-270","w":788},"C":{"d":"878,-388v2,262,-117,403,-364,403v-319,0,-415,-239,-415,-571r0,-605v2,-330,96,-559,414,-562v241,-2,355,128,357,362v0,81,-8,133,-22,204r-210,0v2,-108,-3,-240,-31,-298v-22,-46,-51,-70,-91,-70v-138,0,-145,140,-145,287r0,780v3,147,3,277,143,277v150,0,126,-204,127,-365r237,0r0,158","w":936},"G":{"d":"754,-162v-62,126,-158,207,-333,172v-234,-46,-312,-272,-312,-566r0,-605v1,-339,111,-562,438,-562v245,0,375,125,375,362v0,81,-11,133,-24,204r-207,0r0,-81v0,-187,-50,-281,-151,-281v-147,0,-160,133,-160,287r0,774v3,151,14,277,158,277v203,0,158,-296,164,-514r-133,0r0,-170r385,0r0,865r-172,0","w":1047},"\u00d8":{"d":"299,171r-125,0r561,-2049r125,0xm524,-1723v323,0,421,229,421,562r0,605v-2,305,-89,524,-338,564v-370,59,-508,-200,-508,-564r0,-605v2,-334,102,-562,425,-562xm370,-455v3,149,12,275,154,275v140,0,151,-128,151,-275r0,-777v-4,-150,-9,-287,-151,-287v-144,0,-154,135,-154,287r0,777","w":1039},"\u00f8":{"d":"217,171r-117,0r640,-1712r117,0xm478,-1393v393,-4,381,402,378,802v-2,267,-48,473,-210,568v-90,53,-253,50,-346,2v-212,-110,-210,-450,-206,-786v4,-329,62,-583,384,-586xm418,-198v29,25,90,26,118,0v67,-60,66,-187,66,-325r0,-339v-3,-140,1,-265,-66,-328v-28,-26,-89,-25,-118,0v-70,60,-70,188,-70,328r0,339v2,141,-1,265,70,325","w":958},"\u0138":{"d":"134,-1370r253,0r0,643r8,0r276,-643r243,0r-295,656r324,714r-256,0r-292,-639r-8,0r0,639r-253,0r0,-1370","w":959},"\u00fe":{"d":"649,12v-131,21,-224,-39,-280,-107r14,154r0,384r-253,0r0,-2253r253,0r0,365r-7,182v54,-76,145,-145,280,-118v304,61,235,537,235,902v0,223,-39,394,-178,470v-21,12,-43,18,-64,21xm510,-1197v-65,-2,-102,41,-127,82r0,836v23,51,55,99,126,99v119,0,127,-119,127,-250r0,-518v-4,-129,-7,-245,-126,-249","w":989},"\u00e6":{"d":"339,16v-204,0,-297,-131,-297,-330v0,-330,248,-418,482,-519r0,-177v0,-103,-3,-201,-108,-198v-129,3,-145,129,-140,272r-193,0v-10,-46,-18,-85,-18,-136v0,-213,144,-313,359,-313v122,0,201,46,256,112r8,0v56,-65,131,-113,245,-113v237,0,325,174,326,428v0,108,-14,233,-34,320r-448,0v11,202,-45,466,146,466v111,0,127,-114,123,-239r205,0v13,272,-85,428,-336,427v-139,-1,-227,-69,-279,-167r-8,0v-58,91,-157,167,-289,167xm1024,-807v0,-164,35,-401,-117,-401v-90,0,-108,76,-122,164v-9,60,-8,159,-8,237r247,0xm524,-665v-124,53,-237,134,-237,312v0,97,35,178,130,177v48,0,82,-30,107,-57r0,-432","w":1349},"\u0153":{"d":"725,-98v-65,86,-186,133,-335,106v-303,-56,-295,-438,-292,-811v1,-261,43,-463,207,-551v49,-25,108,-32,175,-32v119,0,199,42,253,113r8,0v60,-69,140,-113,261,-113v245,0,336,169,336,428v0,108,-13,233,-33,320r-449,0v11,202,-44,466,147,466v111,0,127,-114,123,-239r205,0v11,280,-83,428,-351,426v-108,0,-194,-51,-247,-113r-8,0xm1104,-807v0,-164,35,-401,-117,-401v-159,0,-123,225,-131,401r248,0xm420,-190v28,24,90,25,118,0v66,-60,64,-186,64,-323r0,-351v-3,-139,2,-263,-64,-326v-28,-26,-89,-25,-118,0v-69,60,-68,188,-68,326r0,351v3,139,-1,263,68,323","w":1428},"\u0127":{"d":"527,-1208v-62,0,-113,52,-144,93r0,1115r-253,0r0,-1505r-124,0r0,-171r124,0r0,-134r253,0r0,134r221,0r0,171r-221,0r-13,246v59,-78,138,-134,268,-134v180,0,252,137,252,338r0,1055r-253,0r0,-1047v0,-104,-23,-161,-110,-161","w":1018},"\u0140":{"d":"134,-1810r253,0r0,1810r-253,0r0,-1810xm752,-890v0,101,-38,178,-133,178v-91,0,-140,-76,-139,-178v1,-105,37,-172,140,-172v97,0,132,65,132,172","w":767},"\u0142":{"d":"175,-631r-90,92r-118,-121r208,-213r0,-937r252,0r0,679r95,-97r118,122r-213,218r0,888r-252,0r0,-631","w":607},"\u00de":{"d":"932,-925v0,414,-121,675,-527,661r0,264r-259,0r0,-1708r257,0r0,255v360,-11,529,167,529,528xm666,-970v0,-196,-61,-304,-261,-295r0,810v276,17,261,-244,261,-515","w":1002},"\u0152":{"d":"103,-1077v-1,-399,147,-631,541,-631r654,0r0,205r-394,0r0,508r307,0r0,224r-307,0r0,566r394,0r0,205r-654,0v-392,8,-541,-230,-541,-631r0,-446xm371,-582v0,232,43,402,276,395r0,-1334v-236,-9,-276,166,-276,398r0,541","w":1370},"\u00c6":{"d":"443,-1708r797,0r0,205r-394,0r0,508r307,0r0,224r-307,0r0,566r394,0r0,205r-650,0r0,-306r-255,0r-63,306r-261,0xm590,-492r0,-864r-37,0r-179,864r216,0","w":1266},"\u00b7":{"d":"276,-600v-104,0,-155,-78,-155,-193v0,-126,46,-198,156,-198v110,0,157,77,157,198v0,114,-51,193,-158,193","w":561},"+":{"d":"317,-691r-272,0r0,-196r272,0r0,-313r199,0r0,313r274,0r0,196r-274,0r0,323r-199,0r0,-323","w":835},"\u00f7":{"d":"547,-1205v0,93,-40,162,-129,162v-86,0,-135,-67,-135,-162v0,-106,43,-158,136,-158v92,0,128,58,128,158xm45,-887r745,0r0,196r-745,0r0,-196xm546,-377v0,93,-40,162,-129,162v-86,0,-135,-67,-135,-162v0,-106,43,-158,136,-158v92,0,128,58,128,158","w":835},"\u00b1":{"d":"357,-860r-271,0r0,-195r271,0r0,-314r199,0r0,314r274,0r0,195r-274,0r0,323r-199,0r0,-323xm86,-364r744,0r0,195r-744,0r0,-195","w":916},"-":{"d":"126,-888r745,0r0,203r-745,0r0,-203","w":997},"\u2013":{"d":"126,-888r1128,0r0,203r-1128,0r0,-203","w":1381},"\u2014":{"d":"126,-888r1395,0r0,203r-1395,0r0,-203","w":1647},":":{"d":"246,-958v-104,0,-155,-78,-155,-193v0,-126,46,-198,156,-198v110,0,157,77,157,198v0,114,-51,193,-158,193xm246,14v-104,0,-155,-78,-155,-193v0,-126,46,-198,156,-198v110,0,157,77,157,198v0,114,-51,193,-158,193","w":501},";":{"d":"246,-958v-104,0,-155,-78,-155,-193v0,-126,46,-198,156,-198v110,0,157,77,157,198v0,114,-51,193,-158,193xm155,-350r257,0r-146,677r-211,0","w":501},",":{"d":"155,-350r257,0r-146,677r-211,0","w":512},"\u2022":{"d":"577,-764v0,139,-83,232,-227,232v-142,0,-216,-94,-216,-232v0,-144,70,-244,216,-244v149,0,227,97,227,244","w":711},"\u00a1":{"d":"208,424r273,-0r-31,-1258r-207,-0xm346,-1403v-103,0,-155,77,-155,191v0,126,46,196,156,196v110,-0,157,-74,157,-196v0,-113,-52,-191,-158,-191","w":690},"1":{"d":"152,-195r198,0r0,-1165r-212,187r-112,-131r388,-404r193,1r0,1512r197,0r0,195r-652,0r0,-195","w":830},"0":{"d":"526,15v-300,0,-420,-199,-421,-513r0,-722v1,-310,121,-503,421,-503v299,0,415,194,416,503r0,722v-2,311,-122,513,-416,513xm526,-1528v-119,0,-156,80,-156,214r0,925v0,129,39,202,156,202v115,0,153,-74,153,-202r0,-925v0,-133,-35,-214,-153,-214","w":1047},"\u00f0":{"d":"547,-1777v212,219,323,563,326,988v3,400,5,798,-384,804v-400,7,-399,-400,-395,-810v3,-263,49,-464,214,-553v67,-36,171,-35,255,-19v-25,-103,-80,-194,-137,-265r-103,123r-127,-106r103,-128v-50,-28,-107,-48,-179,-50r0,-166v117,0,212,32,291,77r111,-138r132,116xm607,-1158v-20,-49,-112,-63,-171,-38v-70,55,-68,177,-68,315r0,361v3,137,-7,262,60,322v27,25,96,25,123,0v65,-60,56,-188,56,-322r0,-638","w":970},"\u00b6":{"d":"683,-1708r258,0r0,1708r-258,0r0,-1708xm99,-1119v-6,-347,66,-605,413,-589r0,1188v-344,13,-407,-253,-413,-599","w":1101},"\u00a7":{"d":"897,25v0,225,-148,344,-378,344v-219,0,-353,-116,-353,-324v0,-83,10,-134,27,-205r180,0v-4,166,-2,335,146,344v138,8,168,-179,99,-275v-124,-173,-320,-304,-430,-491v-34,-58,-52,-121,-52,-209v0,-158,80,-267,185,-329v-83,-95,-155,-191,-155,-362v0,-226,147,-345,377,-345v219,0,354,117,354,324v0,83,-10,135,-27,206r-180,0v4,-167,2,-336,-147,-345v-139,-9,-169,180,-99,276v125,171,320,304,430,490v34,58,52,122,52,210v0,158,-81,268,-185,330v83,96,156,191,156,361xm442,-996v-71,50,-107,194,-50,288v57,94,152,168,227,247v73,-49,109,-194,51,-289v-57,-94,-152,-167,-228,-246","w":1062},"=":{"d":"86,-1090r744,0r0,195r-744,0r0,-195xm86,-683r744,0r0,195r-744,0r0,-195","w":916},"|":{"d":"247,-1884r220,0r0,2210r-220,0r0,-2210","w":714},"\u00a6":{"d":"247,-1884r220,0r0,944r-220,0r0,-944xm247,-683r220,0r0,1009r-220,0r0,-1009","w":714},"\/":{"d":"323,-1884r219,0r-313,2210r-219,0","w":552},"\\":{"d":"10,-1884r219,0r313,2210r-219,0","w":552},"#":{"d":"237,-385r-141,0r0,-182r154,0r19,-242r-133,0r0,-182r146,0r28,-378r179,0r-28,378r238,0r28,-378r179,0r-28,378r134,0r0,182r-147,0r-19,242r126,0r0,182r-139,0r-28,385r-179,0r28,-385r-238,0r-28,385r-179,0xm668,-567r18,-242r-239,0r-18,242r239,0","w":1108},"\u00a2":{"d":"395,8v-305,-60,-284,-458,-282,-832v2,-282,63,-498,281,-557r0,-242r186,0r0,237v147,27,233,122,234,296v0,61,-6,102,-17,149r-192,0v10,-148,-29,-315,-167,-251v-65,54,-71,168,-71,297r0,394v2,132,0,251,69,305v16,12,37,16,62,16v102,0,109,-124,107,-243r205,0v9,235,-48,389,-229,427r0,254r-186,0r0,-250","w":899},"$":{"d":"425,12v-210,-20,-328,-139,-328,-358v0,-80,10,-133,26,-202r201,0v-5,185,9,358,171,367v149,8,174,-152,123,-270v-23,-57,-56,-106,-96,-157r-263,-339v-83,-110,-151,-214,-151,-389v0,-221,122,-346,316,-380r0,-228r186,0r0,230v182,33,286,150,290,353v2,80,-14,133,-27,204r-200,0v6,-181,-13,-354,-167,-363v-139,-8,-179,145,-124,254v16,32,36,65,61,98r295,382v85,117,170,224,170,418v0,214,-117,332,-297,372r0,251r-186,0r0,-243","w":1006},"]":{"d":"415,66r0,-1837r-284,0r0,-192r505,0r0,2219r-505,0r0,-190r284,0","w":776},")":{"d":"121,83v119,-7,176,-86,217,-192v86,-218,77,-573,77,-894v0,-259,-25,-454,-75,-587v-50,-133,-122,-200,-219,-200r0,-173v302,-2,406,194,469,443v71,283,70,748,40,1085v-24,277,-88,506,-258,629v-65,47,-147,64,-251,63r0,-174","w":776},"(":{"d":"654,257v-303,3,-406,-195,-468,-445v-71,-284,-70,-750,-40,-1088v25,-275,88,-501,258,-622v65,-46,146,-65,250,-65r0,173v-97,0,-165,67,-219,198v-71,174,-74,574,-74,880v0,241,17,444,77,603v40,107,97,184,216,192r0,174","w":776},"\u00a5":{"d":"137,-396r236,0r0,-151r-236,0r0,-180r236,0r-335,-981r261,0r198,716r12,0r198,-716r261,0r-337,981r235,0r0,180r-235,0r0,151r235,0r0,179r-235,0r0,217r-258,0r0,-217r-236,0r0,-179","w":1006},"\u20ac":{"d":"603,15v-329,0,-442,-223,-445,-561r-154,0r0,-180r154,0r0,-151r-154,0r0,-179r154,0v-14,-384,71,-667,434,-667v234,0,359,111,362,337v1,78,-12,131,-27,192r-200,0v2,-165,-3,-326,-142,-326v-199,0,-156,261,-162,464r322,0r-29,179r-293,0r0,151r267,0r-32,180r-235,0v-2,187,-5,368,180,365v135,-2,165,-112,156,-258r218,0v16,293,-104,454,-374,454","w":1038},"^":{"d":"358,-1725r233,0r333,1448r-219,0r-162,-790r-51,-335r-25,0r-54,335r-159,790r-219,0","w":959},"'":{"d":"206,-1876r249,0r-21,696r-203,0","w":661},"\"":{"d":"206,-1876r249,0r-21,696r-203,0xm668,-1876r249,0r-21,696r-203,0","w":1123},"<":{"d":"45,-862r644,-400r0,235r-416,235r0,8r416,236r0,234r-644,-401r0,-147","w":775},">":{"d":"679,-862r-644,-400r0,235r416,235r0,8r-416,236r0,234r644,-401r0,-147","w":775},"_":{"d":"1386,172r0,163r-1391,0r0,-163r1391,0","w":1381},"\u2212":{"d":"126,-887r745,0r0,196r-745,0r0,-196","w":997},"\u013f":{"d":"824,-765v0,96,-52,164,-150,164v-96,0,-143,-70,-143,-164v0,-99,43,-174,143,-174v101,0,150,73,150,174xm146,-1708r259,0r0,1504r353,0r0,204r-612,0r0,-1708","w":790},"\u0141":{"d":"146,-560r-104,81r-118,-155r222,-178r0,-913r256,0r0,707r197,-160r130,168r-327,253r0,550r354,0r0,207r-610,0r0,-560","w":773},"\u00b4":{"d":"114,-1567r290,-416r169,137r-334,384","w":687},"`":{"d":"114,-1846r169,-137r290,416r-125,105","w":687},"\u00a8":{"d":"834,-1728v0,104,-37,163,-146,162v-107,0,-134,-56,-136,-162v-1,-106,29,-173,136,-171v114,2,146,56,146,171xm396,-1728v0,104,-36,163,-145,162v-107,0,-135,-56,-137,-162v-1,-107,30,-173,137,-171v114,2,145,56,145,171","w":948},"\u00c4":{"d":"845,-1909v1,101,-43,158,-146,158v-104,0,-134,-57,-136,-158v-1,-101,34,-158,136,-157v110,1,145,48,146,157xm407,-1909v0,101,-42,158,-145,158v-104,0,-135,-57,-137,-158v-2,-102,34,-158,137,-157v111,1,145,48,145,157xm334,-1708r298,0r316,1708r-262,0r-47,-306r-312,0r-45,306r-263,0xm609,-501r-120,-851r-11,0r-121,851r252,0","w":967},"\u00e4":{"d":"600,-118v-51,74,-144,133,-266,133v-289,0,-328,-417,-184,-601v94,-120,251,-190,410,-251v-11,-153,48,-374,-115,-371v-128,2,-145,126,-140,267r-193,0v-10,-46,-18,-85,-18,-136v0,-214,144,-312,359,-316v251,-5,353,112,353,362r0,1031r-188,0xm316,-355v0,98,34,175,130,175v48,0,90,-29,114,-57r0,-431v-130,50,-244,133,-244,313xm784,-1728v0,104,-37,163,-146,162v-107,0,-134,-56,-136,-162v-1,-106,29,-173,136,-171v114,2,146,56,146,171xm346,-1728v0,104,-36,163,-145,162v-107,0,-135,-56,-137,-162v-1,-107,30,-173,137,-171v114,2,145,56,145,171","w":924},"\u00c1":{"d":"379,-1850r321,-216r129,167r-345,166xm334,-1708r298,0r316,1708r-262,0r-47,-306r-312,0r-45,306r-263,0xm609,-501r-120,-851r-11,0r-121,851r252,0","w":967},"\u00e1":{"d":"600,-118v-51,74,-144,133,-266,133v-289,0,-328,-417,-184,-601v94,-120,251,-190,410,-251v-11,-153,48,-374,-115,-371v-128,2,-145,126,-140,267r-193,0v-10,-46,-18,-85,-18,-136v0,-214,144,-312,359,-316v251,-5,353,112,353,362r0,1031r-188,0xm316,-355v0,98,34,175,130,175v48,0,90,-29,114,-57r0,-431v-130,50,-244,133,-244,313xm297,-1567r290,-416r169,137r-334,384","w":924},"\u00c0":{"d":"140,-1899r129,-167r321,216r-105,117xm334,-1708r298,0r316,1708r-262,0r-47,-306r-312,0r-45,306r-263,0xm609,-501r-120,-851r-11,0r-121,851r252,0","w":967},"\u00d3":{"d":"427,-1850r321,-216r129,167r-345,166xm537,-1723v323,0,421,229,421,562r0,605v-2,305,-89,524,-338,564v-370,59,-508,-200,-508,-564r0,-605v2,-334,102,-562,425,-562xm383,-455v3,149,12,275,154,275v140,0,151,-128,151,-275r0,-777v-4,-150,-9,-287,-151,-287v-144,0,-154,135,-154,287r0,777","w":1070},"\u00d2":{"d":"188,-1899r129,-167r321,216r-105,117xm537,-1723v323,0,421,229,421,562r0,605v-2,305,-89,524,-338,564v-370,59,-508,-200,-508,-564r0,-605v2,-334,102,-562,425,-562xm383,-455v3,149,12,275,154,275v140,0,151,-128,151,-275r0,-777v-4,-150,-9,-287,-151,-287v-144,0,-154,135,-154,287r0,777","w":1070},"\u00d6":{"d":"893,-1909v1,101,-43,158,-146,158v-104,0,-134,-57,-136,-158v-1,-101,34,-158,136,-157v110,1,145,48,146,157xm455,-1909v0,101,-42,158,-145,158v-104,0,-135,-57,-137,-158v-2,-102,34,-158,137,-157v111,1,145,48,145,157xm537,-1723v323,0,421,229,421,562r0,605v-2,305,-89,524,-338,564v-370,59,-508,-200,-508,-564r0,-605v2,-334,102,-562,425,-562xm383,-455v3,149,12,275,154,275v140,0,151,-128,151,-275r0,-777v-4,-150,-9,-287,-151,-287v-144,0,-154,135,-154,287r0,777","w":1070},"\u00e0":{"d":"600,-118v-51,74,-144,133,-266,133v-289,0,-328,-417,-184,-601v94,-120,251,-190,410,-251v-11,-153,48,-374,-115,-371v-128,2,-145,126,-140,267r-193,0v-10,-46,-18,-85,-18,-136v0,-214,144,-312,359,-316v251,-5,353,112,353,362r0,1031r-188,0xm316,-355v0,98,34,175,130,175v48,0,90,-29,114,-57r0,-431v-130,50,-244,133,-244,313xm89,-1846r169,-137r290,416r-125,105","w":924},"\u00b5":{"d":"675,-96v-45,68,-137,137,-249,102v-20,-7,-41,-24,-62,-49r-8,-1r7,372r-241,0r-1,-1705r262,0r0,1033v0,98,22,165,117,163v63,-1,97,-21,132,-63r0,-1133r266,0r0,1377r-206,0","w":1036},"\u00ac":{"d":"45,-887r860,0r0,519r-198,0r0,-324r-662,0r0,-195","w":991},"\u00a0":{"w":438},"i":{"d":"419,-1739v0,102,-53,166,-154,165v-97,0,-151,-62,-151,-165v0,-107,47,-160,152,-160v104,1,153,52,153,160xm134,-1377r253,0r0,1377r-253,0r0,-1377","w":521},"\u0178":{"d":"841,-1909v1,101,-43,158,-146,158v-104,0,-134,-57,-136,-158v-1,-101,34,-158,136,-157v110,1,145,48,146,157xm403,-1909v0,101,-42,158,-145,158v-104,0,-135,-57,-137,-158v-2,-102,34,-158,137,-157v111,1,145,48,145,157xm349,-569r-344,-1139r261,0r209,817r12,0r207,-817r260,0r-346,1139r0,569r-259,0r0,-569","w":959},"\u00dc":{"d":"921,-1909v1,101,-43,158,-146,158v-104,0,-134,-57,-136,-158v-1,-101,34,-158,136,-157v110,1,145,48,146,157xm483,-1909v0,101,-42,158,-145,158v-104,0,-135,-57,-137,-158v-2,-102,34,-158,137,-157v111,1,145,48,145,157xm549,15v-310,0,-405,-220,-405,-540r0,-1183r261,0r0,1252v3,146,5,276,144,276v140,0,151,-129,151,-276r0,-1252r258,0r0,1183v-2,321,-97,540,-409,540","w":1105},"\u00cf":{"d":"636,-1909v1,101,-43,158,-146,158v-104,0,-134,-57,-136,-158v-1,-101,34,-158,136,-157v110,1,145,48,146,157xm198,-1909v0,101,-42,158,-145,158v-104,0,-135,-57,-137,-158v-2,-102,34,-158,137,-157v111,1,145,48,145,157xm146,-1708r259,0r0,1708r-259,0r0,-1708","w":551},"\u00cb":{"d":"840,-1909v1,101,-43,158,-146,158v-104,0,-134,-57,-136,-158v-1,-101,34,-158,136,-157v110,1,145,48,146,157xm402,-1909v0,101,-42,158,-145,158v-104,0,-135,-57,-137,-158v-2,-102,34,-158,137,-157v111,1,145,48,145,157xm146,-1708r633,0r0,204r-374,0r0,511r289,0r0,204r-289,0r0,585r384,0r0,204r-643,0r0,-1708","w":830},"\u00c9":{"d":"374,-1850r321,-216r129,167r-345,166xm146,-1708r633,0r0,204r-374,0r0,511r289,0r0,204r-289,0r0,585r384,0r0,204r-643,0r0,-1708","w":830},"\u00c8":{"d":"135,-1899r129,-167r321,216r-105,117xm146,-1708r633,0r0,204r-374,0r0,511r289,0r0,204r-289,0r0,585r384,0r0,204r-643,0r0,-1708","w":830},"\u00cd":{"d":"169,-1850r321,-216r129,167r-345,166xm146,-1708r259,0r0,1708r-259,0r0,-1708","w":551},"\u00cc":{"d":"-69,-1899r129,-167r321,216r-105,117xm146,-1708r259,0r0,1708r-259,0r0,-1708","w":551},"\u0132":{"d":"146,-1708r259,0r0,1708r-259,0r0,-1708xm1254,-414v2,271,-101,430,-359,430v-238,0,-339,-145,-339,-378v0,-85,12,-180,28,-257r207,0r-3,208v4,115,-2,231,104,231v94,0,100,-96,100,-198r3,-1330r259,0r0,1294","w":1372},"\u0143":{"d":"457,-1850r321,-216r129,167r-345,166xm145,-1708r210,0r414,1143r6,0r-17,-201v-3,-42,-5,-88,-7,-141v-2,-53,-3,-112,-3,-178r0,-623r232,0r0,1708r-212,0r-412,-1113r-8,0r17,221v3,47,5,103,7,166v2,63,3,137,3,224r0,502r-230,0r0,-1708","w":1123},"\u0154":{"d":"468,-1850r321,-216r129,167r-345,166xm945,-1220v0,263,-56,455,-221,537r274,683r-274,0r-227,-639r-97,0r0,639r-254,0r0,-1708r281,0v338,-7,518,146,518,488xm685,-1265v5,-190,-87,-267,-285,-254r0,693v154,7,246,-34,272,-160v15,-72,11,-186,13,-279","w":1070},"\u00da":{"d":"455,-1850r321,-216r129,167r-345,166xm549,15v-310,0,-405,-220,-405,-540r0,-1183r261,0r0,1252v3,146,5,276,144,276v140,0,151,-129,151,-276r0,-1252r258,0r0,1183v-2,321,-97,540,-409,540","w":1105},"\u00d9":{"d":"216,-1899r129,-167r321,216r-105,117xm549,15v-310,0,-405,-220,-405,-540r0,-1183r261,0r0,1252v3,146,5,276,144,276v140,0,151,-129,151,-276r0,-1252r258,0r0,1183v-2,321,-97,540,-409,540","w":1105},"\u00f6":{"d":"482,-1393v393,-4,381,402,378,802v-2,267,-48,473,-210,568v-90,53,-253,50,-346,2v-212,-110,-210,-450,-206,-786v4,-329,62,-583,384,-586xm422,-198v29,25,90,26,118,0v67,-60,66,-187,66,-325r0,-339v-3,-140,1,-265,-66,-328v-28,-26,-89,-25,-118,0v-70,60,-70,188,-70,328r0,339v2,141,-1,265,70,325xm839,-1728v0,104,-37,163,-146,162v-107,0,-134,-56,-136,-162v-1,-106,29,-173,136,-171v114,2,146,56,146,171xm401,-1728v0,104,-36,163,-145,162v-107,0,-135,-56,-137,-162v-1,-107,30,-173,137,-171v114,2,145,56,145,171","w":958},"\u00f2":{"d":"482,-1393v393,-4,381,402,378,802v-2,267,-48,473,-210,568v-90,53,-253,50,-346,2v-212,-110,-210,-450,-206,-786v4,-329,62,-583,384,-586xm422,-198v29,25,90,26,118,0v67,-60,66,-187,66,-325r0,-339v-3,-140,1,-265,-66,-328v-28,-26,-89,-25,-118,0v-70,60,-70,188,-70,328r0,339v2,141,-1,265,70,325xm144,-1846r169,-137r290,416r-125,105","w":958},"\u00f3":{"d":"482,-1393v393,-4,381,402,378,802v-2,267,-48,473,-210,568v-90,53,-253,50,-346,2v-212,-110,-210,-450,-206,-786v4,-329,62,-583,384,-586xm422,-198v29,25,90,26,118,0v67,-60,66,-187,66,-325r0,-339v-3,-140,1,-265,-66,-328v-28,-26,-89,-25,-118,0v-70,60,-70,188,-70,328r0,339v2,141,-1,265,70,325xm353,-1567r290,-416r169,137r-334,384","w":958},"\u00e9":{"d":"832,-413v14,283,-100,431,-364,428v-390,-4,-372,-431,-368,-839v4,-325,82,-569,397,-569v248,0,347,168,347,430v0,115,-12,227,-33,322r-457,0r0,140v6,161,-7,321,147,321v108,0,123,-111,120,-233r211,0xm608,-811v3,-166,29,-397,-123,-397v-158,0,-123,221,-131,397r254,0xm361,-1567r290,-416r169,137r-334,384","w":924},"\u00e8":{"d":"832,-413v14,283,-100,431,-364,428v-390,-4,-372,-431,-368,-839v4,-325,82,-569,397,-569v248,0,347,168,347,430v0,115,-12,227,-33,322r-457,0r0,140v6,161,-7,321,147,321v108,0,123,-111,120,-233r211,0xm608,-811v3,-166,29,-397,-123,-397v-158,0,-123,221,-131,397r254,0xm152,-1846r169,-137r290,416r-125,105","w":924},"\u00eb":{"d":"832,-413v14,283,-100,431,-364,428v-390,-4,-372,-431,-368,-839v4,-325,82,-569,397,-569v248,0,347,168,347,430v0,115,-12,227,-33,322r-457,0r0,140v6,161,-7,321,147,321v108,0,123,-111,120,-233r211,0xm608,-811v3,-166,29,-397,-123,-397v-158,0,-123,221,-131,397r254,0xm847,-1728v0,104,-37,163,-146,162v-107,0,-134,-56,-136,-162v-1,-106,29,-173,136,-171v114,2,146,56,146,171xm409,-1728v0,104,-36,163,-145,162v-107,0,-135,-56,-137,-162v-1,-107,30,-173,137,-171v114,2,145,56,145,171","w":924},"\u00ed":{"d":"134,-1377r253,0r0,1377r-253,0r0,-1377xm136,-1567r290,-416r169,137r-334,384","w":521},"\u00ec":{"d":"134,-1377r253,0r0,1377r-253,0r0,-1377xm-72,-1846r169,-137r290,416r-125,105","w":521},"\u00ef":{"d":"134,-1377r253,0r0,1377r-253,0r0,-1377xm623,-1728v0,104,-37,163,-146,162v-107,0,-134,-56,-136,-162v-1,-106,29,-173,136,-171v114,2,146,56,146,171xm185,-1728v0,104,-36,163,-145,162v-107,0,-135,-56,-137,-162v-1,-107,30,-173,137,-171v114,2,145,56,145,171","w":521},"\u0133":{"d":"419,-1739v0,102,-53,166,-154,165v-97,0,-151,-62,-151,-165v0,-107,47,-160,152,-160v104,1,153,52,153,160xm134,-1377r253,0r0,1377r-253,0r0,-1377xm930,-1739v0,102,-53,166,-154,165v-97,0,-151,-62,-151,-165v0,-107,47,-160,152,-160v104,1,153,52,153,160xm504,273v105,15,141,-55,141,-157r0,-1493r253,0r0,1461v0,220,-65,358,-272,360v-47,0,-87,-7,-122,-24r0,-147","w":1032},"\u0144":{"d":"526,-1208v-64,0,-111,47,-142,94r0,1114r-253,0r0,-1377r195,0r23,148v61,-94,142,-164,288,-164v181,0,252,136,252,338r0,1055r-253,0r0,-1046v0,-105,-22,-162,-110,-162xm411,-1567r290,-416r169,137r-334,384","w":1021},"\u00fa":{"d":"384,16v-181,0,-252,-135,-252,-338r0,-1055r253,0r0,1035v0,105,22,162,110,162v63,0,107,-38,139,-81r0,-1116r253,0r0,1377r-193,0r-26,-147v-60,94,-140,163,-284,163xm396,-1567r290,-416r169,137r-334,384","w":1021},"\u00f9":{"d":"384,16v-181,0,-252,-135,-252,-338r0,-1055r253,0r0,1035v0,105,22,162,110,162v63,0,107,-38,139,-81r0,-1116r253,0r0,1377r-193,0r-26,-147v-60,94,-140,163,-284,163xm187,-1846r169,-137r290,416r-125,105","w":1021},"\u00fc":{"d":"384,16v-181,0,-252,-135,-252,-338r0,-1055r253,0r0,1035v0,105,22,162,110,162v63,0,107,-38,139,-81r0,-1116r253,0r0,1377r-193,0r-26,-147v-60,94,-140,163,-284,163xm882,-1728v0,104,-37,163,-146,162v-107,0,-134,-56,-136,-162v-1,-106,29,-173,136,-171v114,2,146,56,146,171xm444,-1728v0,104,-36,163,-145,162v-107,0,-135,-56,-137,-162v-1,-107,30,-173,137,-171v114,2,145,56,145,171","w":1021},"\u00fd":{"d":"85,265v180,22,258,-85,266,-257r-326,-1385r257,0r145,762r42,263r8,0r29,-263r117,-762r249,0r-290,1428v-44,216,-114,391,-365,394v-43,0,-88,-8,-133,-25xm338,-1567r290,-416r169,137r-334,384","w":898},"\u00ff":{"d":"85,265v180,22,258,-85,266,-257r-326,-1385r257,0r145,762r42,263r8,0r29,-263r117,-762r249,0r-290,1428v-44,216,-114,391,-365,394v-43,0,-88,-8,-133,-25xm825,-1728v0,104,-37,163,-146,162v-107,0,-134,-56,-136,-162v-1,-106,29,-173,136,-171v114,2,146,56,146,171xm387,-1728v0,104,-36,163,-145,162v-107,0,-135,-56,-137,-162v-1,-107,30,-173,137,-171v114,2,145,56,145,171","w":898},"\u00dd":{"d":"375,-1850r321,-216r129,167r-345,166xm349,-569r-344,-1139r261,0r209,817r12,0r207,-817r260,0r-346,1139r0,569r-259,0r0,-569","w":959},"\u00b0":{"d":"106,-1428v0,-219,111,-367,333,-367v225,0,344,146,344,367v0,159,-80,268,-193,324v-81,40,-216,42,-298,2v-114,-55,-186,-166,-186,-326xm306,-1425v0,90,40,160,130,160v96,0,147,-66,147,-160v0,-101,-46,-177,-147,-177v-96,0,-130,81,-130,177","w":889},"\u02da":{"d":"428,-2065v203,0,324,113,324,308v0,141,-78,232,-182,279v-76,34,-204,35,-281,1v-105,-47,-175,-137,-175,-280v0,-194,114,-308,314,-308xm288,-1753v0,85,51,139,139,139v94,0,158,-51,158,-139v0,-96,-59,-149,-158,-149v-92,0,-139,58,-139,149","w":866},"\u00e5":{"d":"600,-118v-51,74,-144,133,-266,133v-289,0,-328,-417,-184,-601v94,-120,251,-190,410,-251v-11,-153,48,-374,-115,-371v-128,2,-145,126,-140,267r-193,0v-10,-46,-18,-85,-18,-136v0,-214,144,-312,359,-316v251,-5,353,112,353,362r0,1031r-188,0xm316,-355v0,98,34,175,130,175v48,0,90,-29,114,-57r0,-431v-130,50,-244,133,-244,313xm423,-2065v203,0,324,113,324,308v0,141,-78,232,-182,279v-76,34,-204,35,-281,1v-105,-47,-175,-137,-175,-280v0,-194,114,-308,314,-308xm283,-1753v0,85,51,139,139,139v94,0,158,-51,158,-139v0,-96,-59,-149,-158,-149v-92,0,-139,58,-139,149","w":924},"\u00c5":{"d":"807,-1776v0,125,-63,202,-145,252r285,1524r-260,0r-47,-306r-316,0r-45,306r-261,0r284,-1526v-81,-46,-133,-135,-133,-250v0,-188,119,-289,314,-289v198,0,324,98,324,289xm343,-1772v0,82,54,129,139,129v92,0,158,-45,158,-129v0,-85,-62,-131,-158,-131v-89,0,-139,50,-139,131xm610,-501r-122,-855r-11,0r-123,855r256,0","w":964},"~":{"d":"130,-450v-21,-266,57,-450,298,-450v218,0,269,186,388,289v54,47,132,21,154,-49v15,-49,18,-118,2,-209r192,0v41,206,-15,371,-144,441v-115,62,-265,9,-334,-51v-71,-62,-121,-148,-192,-206v-19,-15,-39,-23,-60,-23v-120,4,-136,133,-118,258r-186,0","w":1304},"\u02dc":{"d":"850,-1873v38,177,-26,335,-197,337v-148,2,-195,-104,-287,-158v-39,-23,-70,11,-70,58r0,72r-178,0v-22,-188,36,-328,217,-328v143,0,182,103,273,156v40,23,83,1,83,-50r0,-87r159,0","w":975},"\u00e3":{"d":"600,-118v-51,74,-144,133,-266,133v-289,0,-328,-417,-184,-601v94,-120,251,-190,410,-251v-11,-153,48,-374,-115,-371v-128,2,-145,126,-140,267r-193,0v-10,-46,-18,-85,-18,-136v0,-214,144,-312,359,-316v251,-5,353,112,353,362r0,1031r-188,0xm316,-355v0,98,34,175,130,175v48,0,90,-29,114,-57r0,-431v-130,50,-244,133,-244,313xm786,-1924v38,177,-26,335,-197,337v-148,2,-195,-104,-287,-158v-39,-23,-70,11,-70,58r0,72r-178,0v-22,-188,36,-328,217,-328v143,0,182,103,273,156v40,23,83,1,83,-50r0,-87r159,0","w":924},"\u00c3":{"d":"848,-2047v40,173,-30,318,-197,318v-131,0,-193,-72,-262,-133v-15,-13,-28,-22,-52,-22v-55,0,-41,79,-43,136r-178,0v-22,-185,39,-318,217,-318v142,0,185,93,273,146v39,24,83,1,83,-49r0,-78r159,0xm334,-1708r298,0r316,1708r-262,0r-47,-306r-312,0r-45,306r-263,0xm609,-501r-120,-851r-11,0r-121,851r252,0","w":967},"\u00af":{"d":"114,-1826r623,0r0,193r-623,0r0,-193","w":851},"\u00b8":{"d":"402,368v-66,59,-201,61,-288,21r7,-151v92,7,152,-16,173,-88v9,-33,14,-90,16,-138r93,-148r69,137v14,144,8,298,-70,367","w":594},"\u00e7":{"d":"796,-413v12,278,-85,429,-345,428v-116,0,-204,-48,-265,-143v-61,-95,-92,-241,-92,-436v0,-405,-19,-829,387,-829v199,0,314,101,316,303v0,61,-6,102,-17,149r-202,0v0,-125,0,-267,-105,-267v-130,0,-123,161,-123,306r0,391v2,134,-1,255,67,313v16,13,37,18,62,18v97,0,99,-121,99,-233r218,0xm473,363v-66,59,-201,61,-288,21r7,-151v92,7,152,-16,173,-88v9,-33,14,-90,16,-138r93,-148r69,137v14,144,8,298,-70,367","w":871},"\u00d5":{"d":"895,-2047v40,173,-30,318,-197,318v-131,0,-193,-72,-262,-133v-15,-13,-28,-22,-52,-22v-55,0,-41,79,-43,136r-178,0v-22,-185,39,-318,217,-318v142,0,186,93,274,146v39,24,82,1,82,-49r0,-78r159,0xm537,-1723v323,0,421,229,421,562r0,605v-2,305,-89,524,-338,564v-370,59,-508,-200,-508,-564r0,-605v2,-334,102,-562,425,-562xm383,-455v3,149,12,275,154,275v140,0,151,-128,151,-275r0,-777v-4,-150,-9,-287,-151,-287v-144,0,-154,135,-154,287r0,777","w":1070},"\u00f5":{"d":"482,-1393v393,-4,381,402,378,802v-2,267,-48,473,-210,568v-90,53,-253,50,-346,2v-212,-110,-210,-450,-206,-786v4,-329,62,-583,384,-586xm422,-198v29,25,90,26,118,0v67,-60,66,-187,66,-325r0,-339v-3,-140,1,-265,-66,-328v-28,-26,-89,-25,-118,0v-70,60,-70,188,-70,328r0,339v2,141,-1,265,70,325xm842,-1924v38,177,-26,335,-197,337v-148,2,-195,-104,-287,-158v-39,-23,-70,11,-70,58r0,72r-178,0v-22,-188,36,-328,217,-328v143,0,182,103,273,156v40,23,83,1,83,-50r0,-87r159,0","w":958},"\u00f1":{"d":"526,-1208v-64,0,-111,47,-142,94r0,1114r-253,0r0,-1377r195,0r23,148v61,-94,142,-164,288,-164v181,0,252,136,252,338r0,1055r-253,0r0,-1046v0,-105,-22,-162,-110,-162xm899,-1924v38,177,-26,335,-197,337v-148,2,-195,-104,-287,-158v-39,-23,-70,11,-70,58r0,72r-178,0v-22,-188,36,-328,217,-328v143,0,182,103,273,156v40,23,83,1,83,-50r0,-87r159,0","w":1021},"\u00d1":{"d":"925,-2047v40,173,-30,318,-197,318v-131,0,-193,-72,-262,-133v-15,-13,-28,-22,-52,-22v-55,0,-41,79,-43,136r-178,0v-22,-185,39,-318,217,-318v142,0,186,93,274,146v39,24,82,1,82,-49r0,-78r159,0xm145,-1708r210,0r414,1143r6,0r-17,-201v-3,-42,-5,-88,-7,-141v-2,-53,-3,-112,-3,-178r0,-623r232,0r0,1708r-212,0r-412,-1113r-8,0r17,221v3,47,5,103,7,166v2,63,3,137,3,224r0,502r-230,0r0,-1708","w":1123},"\u00c7":{"d":"878,-388v2,262,-117,403,-364,403v-319,0,-415,-239,-415,-571r0,-605v2,-330,96,-559,414,-562v241,-2,355,128,357,362v0,81,-8,133,-22,204r-210,0v2,-108,-3,-240,-31,-298v-22,-46,-51,-70,-91,-70v-138,0,-145,140,-145,287r0,780v3,147,3,277,143,277v150,0,126,-204,127,-365r237,0r0,158xm533,368v-66,59,-201,61,-288,21r7,-151v92,7,152,-16,173,-88v9,-33,14,-90,16,-138r93,-148r69,137v14,144,8,298,-70,367","w":936},"\u02c6":{"d":"527,-1697r-51,-172r-50,172r-94,212r-218,0r270,-581r174,0r276,581r-219,0","w":948},"\u00e2":{"d":"600,-118v-51,74,-144,133,-266,133v-289,0,-328,-417,-184,-601v94,-120,251,-190,410,-251v-11,-153,48,-374,-115,-371v-128,2,-145,126,-140,267r-193,0v-10,-46,-18,-85,-18,-136v0,-214,144,-312,359,-316v251,-5,353,112,353,362r0,1031r-188,0xm316,-355v0,98,34,175,130,175v48,0,90,-29,114,-57r0,-431v-130,50,-244,133,-244,313xm476,-1697r-51,-172r-50,172r-94,212r-218,0r270,-581r174,0r276,581r-219,0","w":924},"\u00fb":{"d":"384,16v-181,0,-252,-135,-252,-338r0,-1055r253,0r0,1035v0,105,22,162,110,162v63,0,107,-38,139,-81r0,-1116r253,0r0,1377r-193,0r-26,-147v-60,94,-140,163,-284,163xm574,-1697r-51,-172r-50,172r-94,212r-218,0r270,-581r174,0r276,581r-219,0","w":1021},"\u00c2":{"d":"595,-1756v-35,-64,-65,-131,-109,-186r-40,56r-84,130r-248,0r250,-310r234,0r246,310r-249,0xm334,-1708r298,0r316,1708r-262,0r-47,-306r-312,0r-45,306r-263,0xm609,-501r-120,-851r-11,0r-121,851r252,0","w":967},"\u00d4":{"d":"643,-1756v-35,-64,-65,-131,-109,-186r-40,56r-84,130r-248,0r250,-310r234,0r246,310r-249,0xm537,-1723v323,0,421,229,421,562r0,605v-2,305,-89,524,-338,564v-370,59,-508,-200,-508,-564r0,-605v2,-334,102,-562,425,-562xm383,-455v3,149,12,275,154,275v140,0,151,-128,151,-275r0,-777v-4,-150,-9,-287,-151,-287v-144,0,-154,135,-154,287r0,777","w":1070},"\u00ce":{"d":"386,-1756v-35,-64,-65,-131,-109,-186r-40,56r-84,130r-248,0r250,-310r234,0r246,310r-249,0xm146,-1708r259,0r0,1708r-259,0r0,-1708","w":551},"\u0128":{"d":"638,-2047v40,173,-30,318,-197,318v-131,0,-193,-72,-262,-133v-15,-13,-28,-22,-52,-22v-55,0,-41,79,-43,136r-178,0v-22,-185,39,-318,217,-318v142,0,185,93,273,146v39,24,83,1,83,-49r0,-78r159,0xm146,-1708r259,0r0,1708r-259,0r0,-1708","w":551},"\u00ca":{"d":"591,-1756v-35,-64,-65,-131,-109,-186r-40,56r-84,130r-248,0r250,-310r234,0r246,310r-249,0xm146,-1708r633,0r0,204r-374,0r0,511r289,0r0,204r-289,0r0,585r384,0r0,204r-643,0r0,-1708","w":830},"\u00ee":{"d":"134,-1377r253,0r0,1377r-253,0r0,-1377xm315,-1697r-51,-172r-50,172r-94,212r-218,0r270,-581r174,0r276,581r-219,0","w":521},"\u00f4":{"d":"482,-1393v393,-4,381,402,378,802v-2,267,-48,473,-210,568v-90,53,-253,50,-346,2v-212,-110,-210,-450,-206,-786v4,-329,62,-583,384,-586xm422,-198v29,25,90,26,118,0v67,-60,66,-187,66,-325r0,-339v-3,-140,1,-265,-66,-328v-28,-26,-89,-25,-118,0v-70,60,-70,188,-70,328r0,339v2,141,-1,265,70,325xm531,-1697r-51,-172r-50,172r-94,212r-218,0r270,-581r174,0r276,581r-219,0","w":958},"\u00d0":{"d":"941,-606v2,389,-152,613,-535,606r-278,0r0,-817r-85,0r0,-202r85,0r0,-706r278,0v378,-6,535,210,535,596r0,523xm672,-1149v1,-224,-51,-384,-285,-370r0,500r158,0r0,202r-158,0r0,637v235,13,285,-149,285,-378r0,-591","w":1037},"\u02c7":{"d":"384,-1485r-270,-581r218,0r94,212r50,171r51,-171r88,-212r219,0r-276,581r-174,0","w":948},"\u0159":{"d":"485,-1208v-49,0,-79,35,-98,74r0,1134r-253,0r0,-1377r185,0r22,140v45,-84,106,-156,208,-156v157,0,213,102,213,268v0,67,-17,134,-34,187r-176,0v-7,-105,28,-270,-67,-270xm390,-1485r-270,-581r218,0r94,212r50,171r51,-171r88,-212r219,0r-276,581r-174,0","w":792},"\u0158":{"d":"453,-1756r-250,-310r248,0r84,130r40,56v44,-55,75,-122,109,-186r249,0r-246,310r-234,0xm945,-1220v0,263,-56,455,-221,537r274,683r-274,0r-227,-639r-97,0r0,639r-254,0r0,-1708r281,0v338,-7,518,146,518,488xm685,-1265v5,-190,-87,-267,-285,-254r0,693v154,7,246,-34,272,-160v15,-72,11,-186,13,-279","w":1070},"\u00db":{"d":"671,-1756v-35,-64,-65,-131,-109,-186r-40,56r-84,130r-248,0r250,-310r234,0r246,310r-249,0xm549,15v-310,0,-405,-220,-405,-540r0,-1183r261,0r0,1252v3,146,5,276,144,276v140,0,151,-129,151,-276r0,-1252r258,0r0,1183v-2,321,-97,540,-409,540","w":1105},"\u0129":{"d":"134,-1377r253,0r0,1377r-253,0r0,-1377xm625,-1924v38,177,-26,335,-197,337v-148,2,-195,-104,-287,-158v-39,-23,-70,11,-70,58r0,72r-178,0v-22,-188,36,-328,217,-328v143,0,182,103,273,156v40,23,83,1,83,-50r0,-87r159,0","w":521},"\u0135":{"d":"-7,273v105,15,141,-55,141,-157r0,-1493r253,0r0,1461v0,220,-65,358,-272,360v-47,0,-87,-7,-122,-24r0,-147xm319,-1697r-51,-172r-50,172r-94,212r-218,0r270,-581r174,0r276,581r-219,0","w":521},"\u00ea":{"d":"832,-413v14,283,-100,431,-364,428v-390,-4,-372,-431,-368,-839v4,-325,82,-569,397,-569v248,0,347,168,347,430v0,115,-12,227,-33,322r-457,0r0,140v6,161,-7,321,147,321v108,0,123,-111,120,-233r211,0xm608,-811v3,-166,29,-397,-123,-397v-158,0,-123,221,-131,397r254,0xm539,-1697r-51,-172r-50,172r-94,212r-218,0r270,-581r174,0r276,581r-219,0","w":924},"\u0134":{"d":"694,-1756v-35,-64,-65,-131,-109,-186r-40,56r-84,130r-248,0r250,-310r234,0r246,310r-249,0xm713,-414v2,271,-101,430,-359,430v-238,0,-339,-145,-339,-378v0,-85,12,-180,28,-257r207,0r-3,208v4,115,-2,231,104,231v94,0,100,-96,100,-198r3,-1330r259,0r0,1294","w":831},"*":{"d":"167,-993r237,-246r-325,-61r71,-239r299,162r-46,-350r246,0r-54,350r301,-157r73,239r-331,56r235,253r-200,146r-152,-313r-155,309","w":1048},"\u2018":{"d":"162,-1404r150,-472r197,0r-79,397r0,299r-268,0r0,-224","w":620},"\uf6c3":{"d":"417,23r-108,434r-195,0r62,-434r241,0","w":531},"\u0157":{"d":"485,-1208v-49,0,-79,35,-98,74r0,1134r-253,0r0,-1377r185,0r22,140v45,-84,106,-156,208,-156v157,0,213,102,213,268v0,67,-17,134,-34,187r-176,0v-7,-105,28,-270,-67,-270xm397,23r-108,434r-195,0r62,-434r241,0","w":792},"\u0136":{"d":"146,-1708r259,0r0,746r8,0r296,-746r258,0r-330,801r367,907r-277,0r-314,-813r-8,0r0,813r-259,0r0,-1708xm725,23r-108,434r-195,0r62,-434r241,0","w":1021},"\u0156":{"d":"945,-1220v0,263,-56,455,-221,537r274,683r-274,0r-227,-639r-97,0r0,639r-254,0r0,-1708r281,0v338,-7,518,146,518,488xm685,-1265v5,-190,-87,-267,-285,-254r0,693v154,7,246,-34,272,-160v15,-72,11,-186,13,-279xm722,23r-108,434r-195,0r62,-434r241,0","w":1070},"\u0137":{"d":"134,-1819r253,0r0,1047r8,0r276,-605r243,0r-306,630r335,747r-258,0r-290,-683r-8,0r0,683r-253,0r0,-1819xm713,23r-108,434r-195,0r62,-434r241,0","w":960},"%":{"d":"799,-1328v8,303,-49,542,-320,542v-281,0,-331,-235,-323,-542v7,-251,81,-420,324,-420v242,0,312,170,319,420xm1085,-1727r181,0r-459,1727r-182,0xm362,-1363v0,168,-44,418,119,418v158,0,113,-254,113,-418v0,-128,-8,-226,-113,-226v-108,0,-119,98,-119,226xm1409,15v-285,5,-329,-240,-322,-542v6,-258,82,-416,323,-420v279,-4,327,231,319,527v-7,252,-80,431,-320,435xm1411,-788v-163,0,-119,252,-119,420v0,128,11,224,119,224v158,0,113,-254,113,-418v0,-128,-8,-226,-113,-226","w":1885},"\u00a4":{"d":"848,-528v-95,77,-318,86,-421,10r-173,160r-138,-155r181,-161v-48,-108,-48,-271,2,-382r-183,-164r138,-155r175,162v102,-73,323,-65,418,9r185,-171r139,155r-197,175v46,107,50,249,1,358r196,174r-139,155xm486,-855v0,95,47,164,142,164v103,0,164,-65,164,-164v0,-109,-54,-184,-164,-184v-102,0,-142,82,-142,184","w":1287},"\u2019":{"d":"448,-1652r-150,472r-197,-0r79,-397r0,-299r268,-0r0,224","w":620},"\u201a":{"d":"448,-14r-150,472r-197,-0r79,-397r0,-299r268,-0r0,224","w":620},"\u201c":{"d":"162,-1404r150,-472r197,0r-79,397r0,299r-268,0r0,-224xm634,-1404r150,-472r197,0r-79,397r0,299r-268,0r0,-224","w":1092},"\u201d":{"d":"448,-1654r-150,472r-197,-0r79,-397r0,-299r268,-0r0,224xm916,-1654r-150,472r-197,-0r79,-397r0,-299r268,-0r0,224","w":1088},"\u201e":{"d":"448,-14r-150,472r-197,-0r79,-397r0,-299r268,-0r0,224xm920,-14r-150,472r-197,-0r79,-397r0,-299r268,-0r0,224","w":1092},"2":{"d":"500,-1723v310,-6,465,177,410,489v-27,153,-105,258,-174,390r-337,640r499,0r0,204r-796,0r0,-152r377,-726v70,-138,132,-246,161,-399v26,-133,0,-263,-140,-258v-167,6,-170,193,-167,378r-200,0v-22,-108,-45,-226,-5,-333v53,-141,175,-229,372,-233","w":992},"3":{"d":"502,15v-250,3,-401,-124,-402,-363v0,-69,10,-139,25,-201r202,0v-3,186,3,369,175,369v118,0,161,-76,161,-198r0,-189v0,-136,-43,-226,-179,-225r-109,0r0,-185r109,0v110,-3,153,-79,154,-195r0,-179v0,-117,-40,-184,-147,-184v-159,0,-175,193,-168,378r-200,0v-23,-103,-45,-230,-3,-333v56,-138,176,-232,371,-233v267,-1,411,116,411,378r0,105v-1,182,-89,287,-210,347r0,8v149,50,236,161,235,364r0,113v0,282,-152,420,-425,423","w":1035},"4":{"d":"81,-442r498,-1266r309,0r0,1199r158,0r0,203r-158,0r0,306r-241,0r0,-306r-566,0r0,-136xm647,-509r0,-252r24,-644r-30,0r-296,896r302,0","w":1100},"5":{"d":"517,15v-246,0,-391,-124,-391,-366v0,-61,8,-127,25,-198r202,0r0,140v2,143,26,229,152,229v122,0,150,-97,150,-229r0,-330v-1,-121,-26,-203,-141,-204v-81,0,-130,55,-162,107r-191,0r0,-872r734,0r0,229r-518,0r0,422v49,-58,137,-102,238,-102v233,0,306,170,307,422r0,290v-1,290,-129,462,-405,462","w":1030},"6":{"d":"542,15v-320,1,-434,-195,-434,-522r0,-702v0,-322,126,-515,439,-514v233,1,384,102,384,325v0,56,-11,114,-27,161r-197,0v0,-163,2,-312,-160,-306v-132,4,-178,95,-177,246r0,329v51,-55,135,-102,242,-99v236,7,335,166,335,422r0,166v0,306,-109,493,-405,494xm535,-873v-81,0,-128,47,-165,93r0,370v1,143,38,228,169,230v199,3,149,-279,149,-474v0,-127,-32,-219,-153,-219","w":1050},"7":{"d":"543,-1480r-502,0r0,-229r780,0r0,137r-470,1572r-281,0","w":848},"8":{"d":"521,15v-283,0,-434,-141,-434,-429r0,-105v-1,-193,85,-301,212,-365r0,-8v-107,-59,-188,-158,-188,-327r0,-120v2,-263,155,-384,411,-384v256,0,410,120,412,383r0,120v0,169,-81,268,-188,327r0,8v128,64,212,172,212,365r0,105v0,289,-153,430,-437,430xm372,-1317v0,168,-25,341,162,341v158,0,141,-182,140,-343v-1,-129,-33,-216,-152,-216v-119,0,-150,90,-150,218xm534,-791v-132,-4,-185,73,-184,210r0,188v0,132,46,213,171,213v126,0,174,-82,174,-214r0,-188v-1,-124,-41,-205,-161,-209","w":1042},"9":{"d":"490,-1723v319,-2,434,186,434,512r0,712v0,318,-119,514,-429,514v-238,0,-394,-100,-394,-325v0,-56,11,-114,27,-161r197,0v-2,164,8,298,170,291v126,-5,168,-98,167,-246r0,-314v-51,55,-132,102,-239,99v-237,-7,-338,-165,-338,-422r0,-166v0,-305,109,-492,405,-494xm497,-835v81,0,128,-47,165,-93r0,-398v1,-132,-38,-210,-169,-210v-202,0,-149,285,-149,482v0,127,32,219,153,219","w":1039},"?":{"d":"510,-1827v294,-3,457,181,404,483v-34,194,-175,313,-267,459v-48,76,-32,207,-35,328r-221,0v7,-131,-16,-287,31,-383v76,-159,235,-280,235,-499v0,-108,-51,-184,-157,-184v-154,0,-160,185,-157,362r-204,0v-13,-72,-28,-123,-27,-204v4,-241,149,-360,398,-362xm515,14v-103,0,-155,-77,-155,-191v0,-126,46,-196,156,-196v110,0,157,74,157,196v0,113,-52,191,-158,191","w":1026},"\u00bf":{"d":"506,438v-294,3,-457,-181,-404,-483v34,-194,175,-313,267,-459v48,-76,32,-207,35,-328r221,-0v-7,131,16,287,-31,383v-76,159,-235,280,-235,499v0,108,51,184,157,184v154,-0,160,-185,157,-362r204,-0v13,72,28,123,27,204v-4,241,-149,360,-398,362xm501,-1403v103,0,155,77,155,191v0,126,-46,196,-156,196v-110,-0,-157,-74,-157,-196v0,-113,52,-191,158,-191","w":1026},"\u00d7":{"d":"66,-551r234,-239r-234,-239r130,-132r234,239r235,-239r130,132r-235,239r235,239r-130,132r-235,-238r-234,238","w":860},"\u00a3":{"d":"450,-701v2,197,3,387,-78,497r536,0r0,204r-810,0r0,-152v141,-75,86,-335,97,-549r-129,0r0,-179r129,0r0,-344v0,-298,92,-499,386,-499v229,0,351,131,351,352v0,73,-12,148,-26,214r-201,0v1,-144,4,-291,-77,-347v-55,-38,-130,-5,-148,46v-50,141,-22,388,-30,578r279,0r0,179r-279,0","w":1006},"{":{"d":"615,256v-227,0,-331,-149,-331,-385r0,-422v1,-129,-35,-209,-156,-213r-52,-3r0,-179v106,1,179,-27,197,-116v5,-27,10,-59,10,-99r0,-419v2,-236,105,-384,332,-384v51,0,106,12,150,26r0,154v-138,-1,-257,1,-257,138r0,401v1,184,-35,322,-162,376r0,26v125,56,162,192,162,375r0,405v-4,137,118,140,257,139r0,153v-44,15,-98,27,-150,27","w":896},"}":{"d":"281,256v-52,0,-106,-12,-150,-27r0,-153v138,1,257,-2,257,-139r0,-405v-1,-182,36,-320,161,-375r0,-26v-127,-55,-161,-192,-161,-376r0,-401v4,-137,-119,-139,-257,-138r0,-154v45,-14,98,-26,150,-26v226,0,332,148,332,384r0,419v-1,129,36,207,156,212r51,3r0,179v-106,-1,-180,26,-198,116v-5,27,-10,60,-10,100r0,422v-2,237,-104,385,-331,385","w":896},"\u00b2":{"d":"418,-1761v188,0,322,77,319,273v-2,162,-71,248,-145,354r-198,284r344,0r0,173r-622,0r0,-118r266,-398v59,-93,113,-160,116,-295v2,-71,-26,-108,-91,-108v-88,0,-107,99,-100,204r-184,0v-6,-38,-15,-69,-14,-112v5,-177,127,-257,309,-257","w":864},"\u00b3":{"d":"735,-1011v15,245,-115,345,-334,345v-184,0,-315,-76,-315,-247v0,-51,5,-84,14,-133r186,0v-3,114,10,213,115,216v106,3,112,-82,112,-189v0,-121,-74,-150,-196,-139r0,-135r80,0v100,2,110,-90,106,-196v-3,-68,-32,-109,-102,-108v-98,2,-108,98,-105,205r-182,0v-9,-45,-14,-74,-14,-122v0,-169,128,-247,309,-247v183,0,316,71,316,261v0,139,-36,228,-132,270r0,8v82,32,135,106,142,211","w":861},"\u00b9":{"d":"160,-839r127,0r0,-611r-133,112r-88,-132r265,-256r178,0r0,887r134,0r0,162r-483,0r0,-162","w":770},"\u00bc":{"d":"1002,-281r373,-788r257,0r0,730r87,0r0,154r-87,0r0,184r-222,0r0,-184r-408,0r0,-96xm1410,-339r0,-37r26,-420r-12,0r-201,457r187,0xm590,0r459,-1709r182,0r-459,1709r-182,0xm201,-839r127,0r0,-611r-133,112r-88,-132r265,-256r178,0r0,887r134,0r0,162r-483,0r0,-162","w":1825},"\u00bd":{"d":"590,0r459,-1709r182,0r-459,1709r-182,0xm201,-839r127,0r0,-611r-133,112r-88,-132r265,-256r178,0r0,887r134,0r0,162r-483,0r0,-162xm1425,-1085v188,0,322,77,319,273v-2,162,-71,248,-145,354r-198,284r344,0r0,173r-622,0r0,-118r266,-398v59,-93,113,-160,116,-295v2,-71,-26,-108,-91,-108v-88,0,-107,99,-100,204r-184,0v-6,-38,-15,-69,-14,-112v5,-177,127,-257,309,-257","w":1861},"\u00be":{"d":"1046,-281r373,-788r258,0r0,730r86,0r0,154r-86,0r0,184r-223,0r0,-184r-408,0r0,-96xm1454,-339r0,-37r27,-420r-13,0r-201,457r187,0xm632,0r459,-1709r182,0r-459,1709r-182,0xm765,-1011v15,245,-115,345,-334,345v-184,0,-315,-76,-315,-247v0,-51,5,-84,14,-133r186,0v-3,114,10,213,115,216v106,3,112,-82,112,-189v0,-121,-74,-150,-196,-139r0,-135r80,0v100,2,110,-90,106,-196v-3,-68,-32,-109,-102,-108v-98,2,-108,98,-105,205r-182,0v-9,-45,-14,-74,-14,-122v0,-169,128,-247,309,-247v183,0,316,71,316,261v0,139,-36,228,-132,270r0,8v82,32,135,106,142,211","w":1869},"\u00df":{"d":"529,-1629v-93,0,-142,49,-142,144r0,1928r-253,0r0,-1851v2,-270,135,-417,400,-420v272,-3,421,155,384,436v-20,147,-106,256,-154,376v-35,86,6,158,37,226r92,197v29,94,74,175,74,296v0,183,-82,313,-269,316v-63,0,-111,-12,-156,-30r0,-176v90,24,175,-11,168,-109v-9,-150,-85,-256,-134,-374v-40,-96,-94,-221,-46,-341v54,-134,163,-232,156,-425v-4,-111,-47,-193,-157,-193","w":1036},"@":{"d":"1154,336v-156,84,-456,88,-632,11v-294,-128,-433,-424,-432,-860r0,-432v3,-538,215,-875,733,-875v521,0,737,310,736,843r0,212v-2,253,-20,489,-156,601v-41,33,-93,49,-158,49v-149,-2,-218,-69,-253,-193v-45,120,-126,213,-286,188v-266,-42,-237,-400,-237,-717v0,-231,44,-413,223,-457v125,-31,211,42,256,119r19,-109r196,0r0,834v-8,98,47,183,133,138v38,-33,47,-96,56,-176v14,-128,9,-337,9,-489v0,-411,-125,-674,-536,-669v-407,5,-538,283,-538,701v0,336,-31,725,99,940v94,156,256,228,498,224v98,-1,198,-15,270,-43r0,160xm923,-1017v-20,-55,-73,-116,-143,-80v-64,32,-71,125,-71,233r0,318v1,105,4,193,67,225v68,35,128,-21,147,-74r0,-622","w":1649},"a":{"d":"586,-118v-51,74,-144,133,-266,133v-289,0,-328,-417,-184,-601v94,-120,251,-190,410,-251v-11,-153,48,-374,-115,-371v-128,2,-145,126,-140,267r-193,0v-10,-46,-18,-85,-18,-136v0,-214,144,-312,359,-316v251,-5,353,112,353,362r0,1031r-188,0xm302,-355v0,98,34,175,130,175v48,0,90,-29,114,-57r0,-431v-130,50,-244,133,-244,313","w":924},"\u2026":{"d":"246,14v-104,0,-155,-78,-155,-193v0,-126,46,-198,156,-198v110,0,157,77,157,198v0,114,-51,193,-158,193xm736,14v-104,0,-155,-78,-155,-193v0,-126,46,-198,156,-198v110,0,157,77,157,198v0,114,-51,193,-158,193xm1227,14v-104,0,-155,-78,-155,-193v0,-126,46,-198,156,-198v110,0,157,77,157,198v0,114,-51,193,-158,193","w":1483},"\u00a9":{"d":"730,15v-431,0,-626,-261,-626,-709r0,-336v1,-448,196,-710,628,-710v431,0,622,263,622,710r0,336v0,448,-192,709,-624,709xm732,-1604v-335,0,-472,205,-472,550r0,384v0,344,136,550,470,550v335,0,470,-207,470,-550r0,-384v0,-344,-134,-550,-468,-550xm1038,-696v15,241,-63,404,-282,404v-253,0,-333,-182,-335,-444r0,-257v2,-260,83,-437,334,-437v174,0,279,89,279,251v0,63,-8,103,-18,159r-164,0v2,-118,-2,-243,-102,-243v-106,0,-113,108,-113,223r0,367v3,115,9,214,119,214v98,0,102,-123,97,-237r185,0","w":1458},"\u00ae":{"d":"1375,-879v-2,444,-209,695,-635,695v-424,0,-634,-252,-636,-695r0,-166v2,-443,212,-695,638,-695v424,0,632,252,633,695r0,166xm260,-871v0,344,146,541,480,541v335,0,478,-199,480,-541r0,-182v1,-345,-144,-541,-478,-541v-334,0,-482,197,-482,541r0,182xm1033,-1135v0,126,-43,204,-129,242r187,331r-207,0r-128,-280r-95,0r0,280r-183,0r0,-825v272,-2,555,-22,555,252xm833,-1102v0,-124,-47,-169,-172,-159r0,293v114,5,172,-25,172,-134","w":1479},"&":{"d":"806,-101v-112,96,-313,155,-491,89v-158,-58,-260,-186,-260,-398v0,-254,162,-389,285,-532r-34,-61v-81,-146,-186,-379,-103,-586v53,-131,170,-221,348,-221v215,0,344,111,344,308v0,264,-166,399,-291,547r258,469v34,-99,41,-227,32,-355r209,0v37,219,-37,423,-129,558r156,282r-268,0xm551,-1606v-145,-5,-163,183,-118,310v21,59,47,111,78,171v77,-87,166,-174,166,-333v0,-89,-42,-145,-126,-148xm436,-768v-68,85,-124,189,-124,323v0,154,77,265,234,265v77,0,131,-34,174,-76","w":1211},"\u00aa":{"d":"538,-740v-53,50,-130,91,-229,91v-160,0,-240,-101,-240,-256v0,-265,230,-340,430,-415v-8,-116,35,-277,-91,-277v-108,0,-127,90,-122,205r-182,0v-9,-45,-14,-74,-14,-122v0,-171,134,-244,319,-247v210,-2,318,89,318,289r0,804r-172,0xm336,-1080v-70,74,-69,266,64,266v43,0,75,-18,99,-38r0,-323v-63,22,-120,49,-163,95","w":836},"\u00ba":{"d":"814,-1040v-3,237,-115,374,-343,374v-228,0,-344,-136,-344,-373r0,-350v0,-239,120,-372,344,-372v228,0,343,137,343,374r0,347xm348,-1040v3,124,13,210,123,210v110,0,122,-87,122,-209r0,-348v-3,-123,-12,-210,-122,-210v-110,0,-123,86,-123,208r0,349","w":919},"\u2122":{"d":"686,-1725r227,0r126,363r34,113r16,0v49,-167,114,-318,172,-476r204,0r0,852r-177,0r4,-331r17,-260r-6,0r-166,467r-113,0r-175,-467r-7,0r18,260r3,331r-177,0r0,-852xm218,-1566r-178,0r1,-159r533,0r0,159r-178,0r0,693r-178,0r0,-693","w":1597},"\u2039":{"d":"144,-717r0,-150r389,-406r137,124r-283,359r279,360r-137,125","w":834},"\u203a":{"d":"680,-717r0,-150r-389,-406r-137,124r283,359r-279,360r137,125","w":834},"\u00ab":{"d":"144,-717r0,-150r389,-406r137,124r-283,359r279,360r-137,125xm651,-717r0,-150r389,-406r137,124r-283,359r279,360r-137,125","w":1336},"\u00bb":{"d":"693,-717r0,-150r-389,-406r-137,124r283,359r-279,360r137,125xm1214,-717r0,-150r-389,-406r-137,124r283,359r-279,360r137,125","w":1368},"\u017d":{"d":"364,-1756r-250,-310r248,0r84,130r40,56v44,-55,75,-122,109,-186r249,0r-246,310r-234,0xm39,-137r506,-1367r-430,0r0,-204r721,0r0,137r-507,1367r477,0r0,204r-767,0r0,-137","w":865},"\u017e":{"d":"20,-126r386,-1059r-353,0r0,-192r624,0r0,126r-387,1059r389,0r0,192r-659,0r0,-126xm259,-1485r-270,-581r218,0r94,212r50,171r51,-171r88,-212r219,0r-276,581r-174,0","w":697},"\u0161":{"d":"405,15v-207,0,-332,-92,-333,-303v0,-53,14,-117,25,-154r178,0v2,143,7,262,147,262v105,0,134,-112,86,-188v-131,-205,-338,-342,-418,-597v-11,-36,-15,-74,-15,-114v5,-207,134,-314,338,-314v199,0,324,88,327,286v1,59,-14,125,-25,170r-175,0v-6,-131,3,-264,-123,-271v-114,-6,-141,125,-92,208v120,204,329,336,413,578v12,37,18,75,18,115v-5,214,-134,322,-351,322xm330,-1485r-270,-581r218,0r94,212r50,171r51,-171r88,-212r219,0r-276,581r-174,0","w":820},"\u0160":{"d":"358,-1756r-250,-310r248,0r84,130r40,56v44,-55,75,-122,109,-186r249,0r-246,310r-234,0xm473,16v-255,1,-397,-120,-397,-362v0,-80,10,-133,26,-202r201,0v0,180,-6,360,168,368v193,9,172,-257,91,-368v-100,-137,-224,-269,-329,-403v-84,-107,-150,-216,-150,-385v0,-246,145,-382,393,-387v285,-6,425,178,382,463r-19,103r-200,0v3,-181,-4,-353,-166,-362v-168,-9,-171,212,-98,315v146,204,352,386,461,618v51,110,61,257,16,372v-56,143,-183,229,-379,230","w":946},"\u2030":{"d":"2199,15v-285,5,-329,-240,-322,-542v6,-258,82,-416,323,-420v279,-4,327,231,319,527v-7,252,-80,431,-320,435xm2201,-788v-163,0,-119,252,-119,420v0,128,11,224,119,224v158,0,113,-254,113,-418v0,-128,-8,-226,-113,-226xm799,-1328v8,303,-49,542,-320,542v-281,0,-331,-235,-323,-542v7,-251,81,-420,324,-420v242,0,312,170,319,420xm1085,-1727r181,0r-459,1727r-182,0xm362,-1363v0,168,-44,418,119,418v158,0,113,-254,113,-418v0,-128,-8,-226,-113,-226v-108,0,-119,98,-119,226xm1409,15v-285,5,-329,-240,-322,-542v6,-258,82,-416,323,-420v279,-4,327,231,319,527v-7,252,-80,431,-320,435xm1411,-788v-163,0,-119,252,-119,420v0,128,11,224,119,224v158,0,113,-254,113,-418v0,-128,-8,-226,-113,-226","w":2676},"\u0192":{"d":"29,218v90,-2,124,-64,124,-159r0,-1020r-115,0r0,-192r115,0r0,-323v-2,-231,80,-362,303,-360v63,1,124,13,168,34r0,178v-28,-7,-59,-11,-94,-11v-90,2,-124,64,-124,159r0,323r201,0r0,192r-201,0r0,1020v2,231,-80,362,-303,360v-63,-1,-124,-13,-168,-34r0,-178v28,7,59,11,94,11","w":616},"\u2020":{"d":"116,-1155r-262,0r0,-201r262,0r0,-509r220,0r0,509r263,0r0,201r-263,0r0,1478r-220,0r0,-1478","w":452},"\u2021":{"d":"116,-628r-262,0r0,-201r262,0r0,-326r-262,0r0,-201r262,0r0,-509r220,0r0,509r262,0r0,201r-262,0r0,326r262,0r0,201r-262,0r0,951r-220,0r0,-951","w":452},"\u00ad":{"w":1707},"\u222b":{"d":"29,218v90,-2,124,-64,124,-159r0,-1535v-2,-231,80,-362,303,-360v63,1,124,13,168,34r0,178v-28,-7,-59,-11,-94,-11v-90,2,-124,64,-124,159r0,1535v2,231,-80,362,-303,360v-63,-1,-124,-13,-168,-34r0,-178v28,7,59,11,94,11","w":616},"\u2248":{"d":"130,-935v-21,-266,57,-450,298,-450v218,0,269,186,388,289v54,47,132,21,154,-49v15,-49,18,-118,2,-209r192,0v41,206,-15,371,-144,441v-115,62,-265,9,-334,-51v-71,-62,-121,-148,-192,-206v-19,-15,-39,-23,-60,-23v-120,4,-136,133,-118,258r-186,0xm120,-281v-21,-266,57,-450,298,-450v218,0,269,186,388,289v54,47,132,21,154,-49v15,-49,18,-118,2,-209r192,0v41,206,-15,371,-144,441v-115,62,-265,9,-334,-51v-71,-62,-121,-148,-192,-206v-19,-15,-39,-23,-60,-23v-120,4,-136,133,-118,258r-186,0","w":1304},"\u02d9":{"d":"419,-1739v0,102,-53,166,-154,165v-97,0,-151,-62,-151,-165v0,-107,47,-160,152,-160v104,1,153,52,153,160","w":533},"\u2260":{"d":"261,-488r-175,0r0,-195r234,0r63,-212r-297,0r0,-195r356,0r84,-279r159,0r-84,279r229,0r0,195r-288,0r-63,212r351,0r0,195r-410,0r-86,288r-159,0","w":916},"\u221a":{"d":"175,-994r-144,0r0,-196r347,0r141,548r33,292r8,0r38,-292r281,-1419r244,0r-463,2061r-216,0","w":1033},"\u0179":{"d":"378,-1850r321,-216r129,167r-345,166xm39,-137r506,-1367r-430,0r0,-204r721,0r0,137r-507,1367r477,0r0,204r-767,0r0,-137","w":865},"\u2044":{"d":"-94,0r459,-1709r182,0r-459,1709r-182,0","w":452},"\u0110":{"d":"941,-606v2,389,-152,613,-535,606r-278,0r0,-817r-85,0r0,-202r85,0r0,-706r278,0v378,-6,535,210,535,596r0,523xm672,-1149v1,-224,-51,-384,-285,-370r0,500r158,0r0,202r-158,0r0,637v235,13,285,-149,285,-378r0,-591","w":1037},"\n":{},"\t":{},"n":{"d":"525,-1208v-64,0,-111,47,-142,94r0,1114r-253,0r0,-1377r195,0r23,148v61,-94,142,-164,288,-164v181,0,252,136,252,338r0,1055r-253,0r0,-1046v0,-105,-22,-162,-110,-162","w":1020}}});
